digraph Tree {
node [shape=box, style="filled, rounded", color="black", fontname="helvetica"] ;
edge [fontname="helvetica"] ;
0 [label="node #0\npetal length (cm) <= 2.5\ngini = 0.67\nsamples = 77\nvalue = [42, 39, 39]\nclass = setosa", fillcolor="#fefaf8"] ;
1 [label="node #1\ngini = 0.0\nsamples = 24\nvalue = [42, 0, 0]\nclass = setosa", fillcolor="#e58139"] ;
0 -> 1 [labeldistance=2.5, labelangle=45, headlabel="True"] ;
2 [label="node #2\nsepal length (cm) <= 6.15\ngini = 0.5\nsamples = 53\nvalue = [0, 39, 39]\nclass = versicolor", fillcolor="#ffffff"] ;
0 -> 2 [labeldistance=2.5, labelangle=-45, headlabel="False"] ;
3 [label="node #3\npetal width (cm) <= 1.7\ngini = 0.28\nsamples = 22\nvalue = [0, 30, 6]\nclass = versicolor", fillcolor="#61ea9a"] ;
2 -> 3 ;
4 [label="node #4\ngini = 0.0\nsamples = 17\nvalue = [0, 29, 0]\nclass = versicolor", fillcolor="#39e581"] ;
3 -> 4 ;
5 [label="node #5\npetal length (cm) <= 4.85\ngini = 0.24\nsamples = 5\nvalue = [0, 1, 6]\nclass = virginica", fillcolor="#965ae9"] ;
3 -> 5 ;
6 [label="node #6\nsepal length (cm) <= 5.95\ngini = 0.44\nsamples = 2\nvalue = [0, 1, 2]\nclass = virginica", fillcolor="#c09cf2"] ;
5 -> 6 ;
7 [label="node #7\ngini = 0.0\nsamples = 1\nvalue = [0, 1, 0]\nclass = versicolor", fillcolor="#39e581"] ;
6 -> 7 ;
8 [label="node #8\ngini = 0.0\nsamples = 1\nvalue = [0, 0, 2]\nclass = virginica", fillcolor="#8139e5"] ;
6 -> 8 ;
9 [label="node #9\ngini = 0.0\nsamples = 3\nvalue = [0, 0, 4]\nclass = virginica", fillcolor="#8139e5"] ;
5 -> 9 ;
10 [label="node #10\npetal length (cm) <= 5.0\ngini = 0.34\nsamples = 31\nvalue = [0, 9, 33]\nclass = virginica", fillcolor="#a36fec"] ;
2 -> 10 ;
11 [label="node #11\nsepal length (cm) <= 6.35\ngini = 0.38\nsamples = 10\nvalue = [0, 9, 3]\nclass = versicolor", fillcolor="#7beeab"] ;
10 -> 11 ;
12 [label="node #12\nsepal width (cm) <= 2.6\ngini = 0.5\nsamples = 5\nvalue = [0, 3, 3]\nclass = versicolor", fillcolor="#ffffff"] ;
11 -> 12 ;
13 [label="node #13\ngini = 0.0\nsamples = 2\nvalue = [0, 2, 0]\nclass = versicolor", fillcolor="#39e581"] ;
12 -> 13 ;
14 [label="node #14\nsepal width (cm) <= 2.85\ngini = 0.38\nsamples = 3\nvalue = [0, 1, 3]\nclass = virginica", fillcolor="#ab7bee"] ;
12 -> 14 ;
15 [label="node #15\ngini = 0.0\nsamples = 2\nvalue = [0, 0, 3]\nclass = virginica", fillcolor="#8139e5"] ;
14 -> 15 ;
16 [label="node #16\ngini = 0.0\nsamples = 1\nvalue = [0, 1, 0]\nclass = versicolor", fillcolor="#39e581"] ;
14 -> 16 ;
17 [label="node #17\ngini = 0.0\nsamples = 5\nvalue = [0, 6, 0]\nclass = versicolor", fillcolor="#39e581"] ;
11 -> 17 ;
18 [label="node #18\ngini = 0.0\nsamples = 21\nvalue = [0, 0, 30]\nclass = virginica", fillcolor="#8139e5"] ;
10 -> 18 ;
}